-5.426288162198757148e-02,-1.332377313168950361e-01,-1.921355945279592040e-02,-2.866089772094215782e-01,-2.063354510397531205e-01,-2.469847449954226948e-01,1.165502820713157361e-01,-7.185474821112817212e-01,1.032310063871286349e-01,-4.190459891815882104e-02,-1.753985778260735706e-01,-5.256050082559183823e-01,-2.960238241079204968e-01,-1.080874414224261559e-01
-3.493144736671464079e-01,-2.714500750439309829e-01,-1.704325745843640050e-01,-3.599124401748451385e-01,-3.118511084443596239e-03,1.053398283606003655e-01,-5.644656351667907135e-01,-3.676739938537110786e-01,-5.395358129155017890e-01,-1.488203469370298626e-02,-6.442480166234685335e-01,1.964841781529614306e-01,5.747356780300047485e-02,1.107646431632555301e-01
-4.276737352153466287e-01,2.395194023169227304e-01,-3.176195507504443044e-02,-1.873250582138397125e-01,-1.401828322523459569e-01,2.356894652234496901e-01,1.443296108240356423e-01,-6.498859321069723194e-01,1.677485144618238444e-01,2.400607112185602909e-01,-6.889111895577029188e-01,-2.477446808068565209e-01,-5.522510474666182390e-01,-5.140752596104557481e-01
-7.900966841463579957e-03,-3.998742558080293219e-01,-2.780786943139227155e-02,-1.301996051928018261e-01,-8.869095798327779334e-02,5.757365216969705102e-02,2.295327722113551898e-03,-4.136887157524714032e-01,-3.437467646919315500e-01,-5.194012751147375484e-01,-4.450185440868370534e-01,-2.990249263105718702e-01,-3.203724936519681266e-01,-1.607654133997460655e-01
-3.052656454806203512e-01,-6.002992446528482295e-01,-3.961282999350799194e-01,-2.109040069686181629e-01,-3.417150300928714080e-01,1.434780758001436007e-01,-4.652545832311824614e-01,1.008863688297924194e-01,1.795368367988318392e-01,8.992064970762717047e-02,-2.389976865878830903e-01,-1.329968092069253593e-01,-3.121715949544911495e-01,-1.682056392458950167e-01
3.629488783839578958e-01,-6.222464528523000693e-01,-1.182382808538575275e-01,-8.125572420730169110e-02,-3.133037944281853449e-01,1.609688323215414246e-02,2.442731280356564283e-01,-6.231376427075053792e-01,-4.173857265221055934e-01,-4.999692262345435401e-01,-2.790020310856226593e-01,-5.177789840731873011e-02,-5.324634030469747037e-01,-3.043430878015830898e-01
